5
12 12 6 12 3 
0.049044 -0.222274 -0.038121 0.042856 -0.001708 -0.251671 -0.126526 -0.072258 -0.304437 -0.017407 0.005087 -0.031289 
0.087558 0.148388 0.617463 0.738849 0.072770 0.341094 0.288640 0.232820 -0.121656 0.016263 0.118584 0.442827 
0.117275 0.311623 0.061304 -0.113019 0.710057 0.095880 0.323765 0.310178 0.342492 0.160867 0.350636 0.078513 
-0.014209 0.351792 0.042835 0.291588 0.089073 0.379990 0.100619 0.487067 -0.107244 0.131672 0.307783 0.325247 
-0.035856 0.229514 -0.043982 -0.220478 -0.132857 0.020123 0.277109 -0.263609 -0.092024 -0.201161 0.107162 -0.153443 
0.245262 0.650887 0.479638 0.305106 0.407177 0.348155 0.261143 0.466842 0.442272 0.444572 0.314865 -0.027027 
-0.007127 0.252432 0.109142 -0.057103 -0.025347 0.185328 0.083075 -0.012191 0.168511 -0.021217 0.027910 0.144786 
0.375301 0.115160 0.095558 0.458061 0.101245 0.306843 0.464470 0.236773 0.268775 0.388012 0.201970 0.442504 
0.115318 0.174811 0.250687 0.538427 -0.106273 -0.053779 0.458639 0.286987 -0.009402 0.287327 0.264726 0.271156 
0.021057 0.051897 0.225521 -0.145853 0.184845 0.027540 -0.024427 -0.045767 -0.068226 0.113382 -0.023101 0.065327 
-0.000998 -0.121190 -0.034612 0.099393 0.329135 0.235518 0.166383 -0.107497 0.336475 0.051033 0.014773 -0.041822 
0.289189 0.118993 0.072476 0.362045 0.059465 0.392660 0.079497 0.365309 0.032422 0.471578 0.024136 0.255563 
-0.313382 -0.310556 -0.113305 -0.143736 -0.115184 0.088514 -0.017257 -0.153856 -0.387748 -0.239687 -0.027723 -0.431229 
0.312280 0.001267 0.204971 0.223187 0.156121 0.216813 
0.160565 -0.300838 0.097652 -0.009268 0.075638 0.236449 
0.131413 -0.120139 0.386074 0.026103 -0.165058 -0.053820 
-0.119808 0.313736 0.475755 0.247542 -0.436623 -0.033200 
0.235294 -0.269129 -0.096745 -0.209694 0.325572 0.367537 
0.232821 0.215295 0.304500 -0.181227 0.186973 0.051141 
-0.303297 -0.074491 0.219177 0.092893 0.089998 0.092198 
0.283425 0.288715 0.452911 0.164168 0.170838 0.309610 
0.342080 0.090361 0.005647 0.309628 0.541082 0.068423 
0.242433 0.024898 0.274514 -0.000608 0.246152 0.071449 
0.027031 -0.056471 -0.077801 0.114861 -0.121690 0.222171 
0.389066 0.512770 0.224750 0.196614 -0.016030 0.182225 
0.164729 0.146490 0.349021 -0.057885 -0.340127 0.333851 
-0.162687 0.101923 0.005396 0.088990 -0.191310 0.107412 0.201945 0.078805 0.066750 -0.016829 -0.046541 0.283641 
0.062033 -0.007518 0.195742 0.034142 0.165747 0.338759 -0.133969 0.385328 -0.203897 0.032225 0.434762 -0.144195 
0.100461 -0.112120 0.378174 -0.249519 0.052630 0.106464 -0.279312 0.134696 0.043578 -0.125511 -0.028941 -0.100946 
-0.024419 0.303056 -0.051416 -0.216834 0.100007 0.366896 -0.084979 0.455620 0.160836 0.305506 -0.004724 0.127453 
-0.293467 0.241579 0.071273 -0.329592 0.372469 0.282666 0.363828 0.345455 -0.053279 0.064649 -0.024172 0.613648 
-0.180209 0.085570 0.028539 0.247669 0.226506 0.165436 0.200018 0.005468 0.113436 -0.193515 0.059362 0.243309 
0.329938 0.349901 0.440876 0.103672 -0.020585 0.410268 0.550607 0.352431 -0.033333 -0.178493 -0.007694 0.506987 
0.394114 -0.003986 -0.060041 
-0.061086 0.177573 -0.055745 
0.447649 -0.220132 0.000932 
0.084466 0.084311 0.326318 
-0.345416 -0.054946 -0.352325 
-0.123873 0.379917 -0.263038 
-0.141760 0.043898 0.416772 
-0.253333 0.257259 -0.341754 
-0.077768 -0.125938 0.060294 
-0.110559 0.176716 -0.318863 
0.119546 0.161429 -0.148431 
-0.316213 0.077194 0.222840 
0.097576 -0.446756 0.020697 
