5
12 12 6 12 3 
0.103777 -0.254438 -0.144775 0.227870 0.120735 -0.198112 -0.003922 -0.205916 -0.531491 -0.035409 -0.026916 -0.165843 
0.256261 0.425365 0.606419 0.492578 0.416016 0.364943 0.198086 0.453204 0.035701 0.197806 0.159741 0.335142 
0.051796 0.150907 0.069168 -0.038380 0.608931 0.287973 0.096313 0.490080 0.620448 0.187223 0.320043 0.599594 
0.026145 0.196600 -0.193773 0.226704 0.018617 0.172413 0.031180 0.049152 -0.269792 -0.032563 0.211483 0.141180 
0.148652 0.559482 0.406865 0.039053 -0.186776 -0.160124 0.317790 -0.189071 0.083303 -0.154971 0.248529 0.045442 
0.121523 0.560998 0.517525 0.399704 0.235031 0.332959 0.221692 0.523571 0.375618 0.386998 0.325766 0.058025 
0.006842 0.131824 0.097461 0.178389 -0.072313 0.210679 0.051147 -0.255571 0.050869 -0.131030 0.026452 0.293232 
0.329152 -0.013243 -0.135526 0.549533 0.309297 0.658761 0.633847 0.415430 -0.001822 0.511942 0.140766 0.293748 
0.348709 0.546843 0.508508 0.517684 -0.044405 -0.404762 0.441631 0.129507 0.022760 0.282235 0.372403 0.106919 
0.350428 0.037877 0.346377 0.104673 -0.230722 -0.476319 -0.233692 -0.437991 0.192126 -0.054311 -0.013430 0.388373 
0.012924 -0.022454 0.194273 0.389907 0.481900 0.538765 0.313658 0.133106 0.317263 0.164690 0.101456 0.166240 
0.258160 0.016116 -0.055730 0.454469 0.119201 0.572244 0.176885 0.428484 -0.168839 0.522858 -0.025962 0.168822 
-0.071983 -0.063300 0.210482 0.104831 -0.068020 -0.090811 -0.009210 -0.260745 -0.155310 -0.274742 0.127756 -0.157994 
-0.108410 -0.232085 0.101890 0.039536 0.309348 -0.012619 
0.097315 -0.246058 -0.006850 0.462195 0.237367 0.024291 
0.063940 -0.257772 0.156541 0.453908 0.180003 -0.292439 
-0.381870 -0.180569 0.203395 -0.221694 0.167593 0.080461 
0.380940 0.263274 -0.061639 -0.094731 0.402518 0.369458 
0.371104 0.428624 0.461618 -0.377083 0.341087 0.411985 
-0.172774 -0.061136 0.369635 0.044892 0.182328 0.349838 
0.376531 0.307185 0.380155 0.325969 0.365293 0.439219 
0.413082 0.390431 -0.135775 0.514119 0.404787 -0.250139 
0.239241 0.108647 0.312402 -0.020096 0.319747 0.181438 
-0.062880 -0.039278 -0.170680 0.179131 0.002599 0.055833 
0.016967 0.402014 -0.092766 -0.028672 0.220835 -0.239306 
-0.025276 0.064106 0.130168 0.102049 0.003650 0.028055 
0.221160 0.353728 0.361322 0.108971 -0.047327 0.093948 0.116239 0.132347 0.167361 0.110767 0.104551 0.268614 
0.258824 -0.012166 0.421310 0.159259 0.228322 0.043601 0.053109 0.319074 -0.132191 -0.134541 0.440924 0.003424 
-0.114149 -0.221941 0.039334 0.042561 0.081108 0.405111 0.152228 0.272432 0.226877 -0.099587 -0.048918 0.252186 
0.146984 0.435076 -0.043091 -0.146936 -0.012690 0.158149 -0.361473 0.196512 0.193311 0.443374 0.008629 -0.156496 
-0.097446 -0.053786 -0.044665 -0.021224 0.143833 -0.183424 0.090608 -0.180200 -0.080502 -0.021982 0.035208 0.130795 
-0.075733 0.025364 0.077587 0.424963 0.281687 0.327563 0.471247 0.080007 0.225777 -0.168696 0.160884 0.403191 
0.193208 0.210656 0.124163 0.085106 0.078976 0.203785 0.255008 0.230045 -0.016222 0.014288 -0.015192 0.174912 
0.470974 -0.009731 0.057891 
0.388222 -0.046578 -0.232546 
0.364181 -0.125800 0.141884 
0.124906 0.159003 0.283167 
-0.130526 -0.112476 0.010558 
-0.232524 0.118837 -0.108793 
-0.223429 0.000924 0.319959 
-0.142932 -0.129226 -0.165668 
0.081952 0.250564 0.104559 
0.239994 0.102299 -0.243614 
0.186751 -0.064158 0.106571 
-0.181287 -0.034209 0.182501 
0.064701 0.040109 -0.058889 
