5
12 12 6 12 3 
5.460029 3.007517 6.634164 5.430447 15.069900 0.675130 9.908474 1.347867 7.265041 3.826766 8.104305 4.724289 
3.613084 0.945020 1.189207 1.229062 10.647603 1.116178 8.070174 2.015950 -0.933838 1.291423 3.883902 0.989125 
4.548898 3.912209 6.861053 5.128973 13.007383 1.208224 6.970021 2.011043 8.701789 5.126391 7.290040 4.832912 
8.965687 4.405569 8.035754 6.957185 26.359719 1.578918 18.815419 2.815666 7.718236 5.319417 13.113752 6.115320 
-3.212122 -3.247918 -5.709878 -4.648223 -5.997289 -1.138268 -2.200890 -1.908949 -6.631931 -4.761339 -4.578460 -4.008274 
-8.730699 0.353410 -1.817860 -1.461324 -30.937681 -0.180930 -24.900226 -1.465105 0.276890 -0.112651 -11.563953 -1.781356 
-1.204730 -0.504337 -0.012839 0.266245 -4.024310 -0.513523 -1.724938 -1.378831 0.270704 -1.607287 -0.949997 0.265558 
0.605903 0.236645 0.285817 0.582018 0.766849 0.366756 0.925356 0.337277 0.507929 0.516906 0.513479 0.583134 
-14.016365 -9.087086 -15.109911 -12.093347 -40.162736 -3.092186 -25.035486 -4.984736 -16.199933 -12.407898 -20.258728 -10.666065 
-16.698850 -7.462571 -13.378383 -10.256777 -53.460399 -2.988216 -36.479914 -5.768288 -13.456758 -10.597464 -23.820047 -8.980596 
3.299327 2.605411 5.531282 4.235166 10.028809 1.073328 5.745560 0.971755 7.240074 3.482822 5.621838 3.653570 
-1.015938 -0.453818 -0.970696 -0.464587 -3.985802 0.172884 -2.728525 -0.066526 -0.949969 -0.330067 -1.806897 -0.471319 
-3.074193 -1.610643 -1.061009 -0.666211 -9.182905 -0.705959 -5.716707 -1.831374 -0.568688 -2.687314 -3.281036 -0.885128 
-0.234810 -0.509808 -0.287082 0.891054 3.168851 1.318866 
0.330880 -0.192142 -0.021427 1.311076 1.138757 -0.906998 
0.238206 -0.260068 0.035057 0.674491 0.359001 -0.427447 
-0.344828 -0.325361 -0.229230 0.715954 1.161210 -0.893910 
0.410021 -0.721364 -0.873398 3.274280 10.127864 5.922245 
0.395310 0.338308 0.267279 -0.005264 0.354715 0.189156 
-1.199501 -1.317488 -0.776769 1.505561 8.004001 4.002335 
0.329424 0.288058 0.353471 0.406689 0.931684 0.808079 
0.906347 0.297279 -0.197870 0.740141 -2.421968 -2.603667 
0.999200 0.234715 0.240603 1.749262 1.709655 -0.665993 
-0.224438 -0.638234 -0.722451 1.443256 3.806193 1.360207 
-0.065718 0.111727 -0.237523 0.354113 0.802657 -0.473330 
-0.752906 -0.539617 -0.287717 -0.861719 0.078112 -0.011055 
0.448016 0.790229 0.413736 0.138109 -0.186673 -0.063157 -0.288538 -0.066626 0.248643 0.387401 0.106118 0.065305 
0.328727 0.146949 0.293946 0.249834 0.163196 0.124995 -0.072902 0.221232 0.013778 0.076335 0.397048 -0.089498 
0.165525 0.036141 0.121016 0.222541 -0.051910 0.358117 -0.044948 0.067014 0.430935 0.170091 0.018905 0.061095 
0.656823 3.130360 1.985370 -0.182764 -1.708964 -2.735992 -0.306475 -2.522003 1.452780 0.930450 0.551734 -0.881156 
-0.263344 6.063509 5.444074 -0.664155 -6.307963 -10.887826 2.297587 -10.516299 3.615048 1.050672 1.317169 -2.613794 
-0.313797 1.629879 2.883024 0.645229 -3.376045 -5.504633 3.200029 -5.959162 2.256489 -0.216316 0.768489 -0.664477 
-0.021796 -0.170711 -0.262467 -0.022925 -0.181044 -0.060289 -0.033970 -0.106279 -0.144431 -0.117726 -0.273547 -0.229784 
0.427270 0.295592 -0.221299 
0.523726 -0.021034 -0.312020 
-0.280759 -0.177039 0.515488 
0.000136 0.000436 0.316511 
0.540402 0.747028 -0.024252 
0.690145 1.170427 0.017289 
-0.486118 0.320655 1.186301 
0.718274 1.022337 -0.163523 
-0.111915 0.046529 0.367437 
0.128582 -0.139959 -0.293102 
0.272306 0.227660 0.168238 
0.650356 0.829722 0.369302 
-0.020116 0.528682 -0.203172 
